network unknown {
}
variable CanadaQ_1_7 {
  type discrete [ 5 ] { 1, 2.5, 4, 5.5, 7 };
}
variable COVIDeffect_4 {
  type discrete [ 7 ] { 1, 2, 3, 4, 5, 6, 7 };
}
variable COVIDexp {
  type discrete [ 9 ] { 1, 2, 3, 4, 5, 6, 7, 8, 9 };
}
variable FinitePool_6 {
  type discrete [ 7 ] { 1, 2, 3, 4, 5, 6, 7 };
}
variable Friends_1 {
  type discrete [ 7 ] { 1, 2, 3, 4, 5, 6, 7 };
}
variable Friends_4 {
  type discrete [ 7 ] { 1, 2, 3, 4, 5, 6, 7 };
}
variable Govresponse_7 {
  type discrete [ 7 ] { 1, 2, 3, 4, 5, 6, 7 };
}
variable KnowledgeCert_1 {
  type discrete [ 7 ] { 1, 2, 3, 4, 5, 6, 7 };
}
variable MediaExp_1 {
  type discrete [ 2 ] { 1, 2 };
}
variable MediaExp_4 {
  type discrete [ 2 ] { 1, 2 };
}
variable MediaExp_7 {
  type discrete [ 2 ] { 1, 2 };
}
variable risk_perception_r {
  type discrete [ 7 ] { 1, 2, 3, 4, 5, 6, 7 };
}
variable SARS {
  type discrete [ 2 ] { 1, 2 };
}
variable shop_groceries_less {
  type discrete [ 2 ] { 1, 2 };
}
variable Trustingroups_12 {
  type discrete [ 5 ] { 1, 2, 3, 4, 5 };
}
variable Trustingroups_6 {
  type discrete [ 5 ] { 1, 2, 3, 4, 5 };
}
variable Trustingroups_7 {
  type discrete [ 5 ] { 1, 2, 3, 4, 5 };
}
probability ( CanadaQ_1_7 | shop_groceries_less ) {
  (1) 0.02062081, 0.05306504, 0.14759008, 0.39060989, 0.38811418;
  (2) 0.009590775, 0.019715933, 0.077654338, 0.301532836, 0.591506117;
}
probability ( COVIDeffect_4 | risk_perception_r ) {
  (1) 0.987927565, 0.002012072, 0.002012072, 0.002012072, 0.002012072, 0.002012072, 0.002012072;
  (2) 0.9420539300, 0.0002868617, 0.0143430866, 0.0143430866, 0.0143430866, 0.0002868617, 0.0143430866;
  (3) 0.814119073, 0.054486694, 0.024794223, 0.064384184, 0.022319851, 0.007473615, 0.012422360;
  (4) 0.72590033, 0.06654210, 0.04348761, 0.09947707, 0.03624192, 0.01779833, 0.01055264;
  (5) 0.76237261, 0.07581461, 0.03439449, 0.04455414, 0.04064658, 0.02501635, 0.01720123;
  (6) 0.75636140, 0.08250202, 0.02787984, 0.03846985, 0.02899457, 0.02787984, 0.03791248;
  (7) 0.76463162, 0.06933293, 0.02974297, 0.02231985, 0.03716609, 0.02479422, 0.05201232;
}
probability ( COVIDexp | risk_perception_r ) {
  (1) 0.001564945, 0.001564945, 0.001564945, 0.001564945, 0.001564945, 0.001564945, 0.001564945, 0.987480438, 0.001564945;
  (2) 0.0283355645, 0.0002231147, 0.0142793396, 0.0002231147, 0.0002231147, 0.0142793396, 0.0002231147, 0.9419901830, 0.0002231147;
  (3) 1.241114e-02, 2.973175e-02, 3.220612e-02, 7.462393e-03, 4.988021e-03, 3.927576e-05, 3.927576e-05, 8.734928e-01, 3.962924e-02;
  (4) 0.0158192445, 0.0283345357, 0.0375563293, 0.0085735496, 0.0033039532, 0.0006691551, 0.0006691551, 0.8352414709, 0.0698326067;
  (5) 9.384342e-03, 4.064481e-02, 3.439272e-02, 8.993587e-03, 7.877141e-04, 1.569226e-03, 6.202474e-06, 7.963666e-01, 1.078548e-01;
  (6) 0.0044678009, 0.0579752457, 0.0501720767, 0.0061399085, 0.0005662163, 0.0011235856, 0.0005662163, 0.7362935832, 0.1426953668;
  (7) 2.513648e-03, 1.435529e-01, 2.725737e-02, 1.241114e-02, 3.927576e-05, 3.927576e-05, 3.927576e-05, 6.507993e-01, 1.633479e-01;
}
probability ( FinitePool_6 | risk_perception_r ) {
  (1) 0.396378270, 0.002012072, 0.100603622, 0.100603622, 0.199195171, 0.002012072, 0.199195171;
  (2) 0.35169248, 0.18301779, 0.09868044, 0.12679289, 0.05651176, 0.08462421, 0.09868044;
  (3) 0.15346160, 0.14356411, 0.16335909, 0.21532091, 0.14108973, 0.08170479, 0.10149977;
  (4) 0.07444649, 0.10935757, 0.12845985, 0.26085846, 0.19696460, 0.10804017, 0.12187286;
  (5) 0.05666757, 0.10082298, 0.12465909, 0.19694891, 0.23563374, 0.15787333, 0.12739438;
  (6) 0.06578094, 0.09810836, 0.11148522, 0.18394322, 0.19620534, 0.15551739, 0.18895954;
  (7) 0.06933293, 0.14108973, 0.08417916, 0.16088471, 0.18067969, 0.14603848, 0.21779528;
}
probability ( Friends_1 | risk_perception_r ) {
  (1) 0.593561368, 0.199195171, 0.002012072, 0.100603622, 0.100603622, 0.002012072, 0.002012072;
  (2) 0.39386116, 0.19707401, 0.12679289, 0.09868044, 0.04245554, 0.07056799, 0.07056799;
  (3) 0.27223148, 0.24501338, 0.16583346, 0.14108973, 0.09160228, 0.04458920, 0.03964046;
  (4) 0.17061662, 0.19103631, 0.16864052, 0.27337375, 0.11528586, 0.04414631, 0.03690062;
  (5) 0.10981036, 0.17819263, 0.16998676, 0.26220514, 0.16881449, 0.06331042, 0.04768019;
  (6) 0.08640360, 0.16945162, 0.13991105, 0.23800803, 0.17558268, 0.11092785, 0.07971517;
  (7) 0.1089229, 0.1262435, 0.1633591, 0.1460385, 0.1509872, 0.1039741, 0.2004747;
}
probability ( Friends_4 | risk_perception_r ) {
  (1) 0.790744467, 0.100603622, 0.002012072, 0.002012072, 0.002012072, 0.002012072, 0.100603622;
  (2) 0.32358003, 0.21113024, 0.12679289, 0.11273666, 0.08462421, 0.02839931, 0.11273666;
  (3) 0.26975711, 0.22769277, 0.20542342, 0.15346160, 0.07675605, 0.03964046, 0.02726860;
  (4) 0.16139483, 0.18115582, 0.17391012, 0.27073895, 0.13043595, 0.04612241, 0.03624192;
  (5) 0.10316751, 0.15005821, 0.16099938, 0.26884799, 0.18952455, 0.08089443, 0.04650792;
  (6) 0.08807571, 0.13935368, 0.13155051, 0.19843482, 0.19676271, 0.14046842, 0.10535416;
  (7) 0.07675605, 0.10644852, 0.11882038, 0.16830783, 0.15346160, 0.11882038, 0.25738524;
}
probability ( Govresponse_7 | shop_groceries_less ) {
  (1) 0.03215456, 0.04338525, 0.08331662, 0.20716625, 0.26331974, 0.22370034, 0.14695724;
  (2) 0.01858288, 0.02420797, 0.05542721, 0.14205356, 0.22614862, 0.27986821, 0.25371155;
}
probability ( KnowledgeCert_1 | risk_perception_r ) {
  (1) 0.100603622, 0.199195171, 0.199195171, 0.100603622, 0.100603622, 0.002012072, 0.297786720;
  (2) 0.14084911, 0.16896156, 0.22518646, 0.16896156, 0.11273666, 0.07056799, 0.11273666;
  (3) 0.07923042, 0.16830783, 0.35636015, 0.20047468, 0.13614099, 0.04458920, 0.01489673;
  (4) 0.05007461, 0.19235371, 0.30828483, 0.25822366, 0.12845985, 0.04678111, 0.01582223;
  (5) 0.04181885, 0.18288170, 0.32667985, 0.20906235, 0.17311281, 0.05119699, 0.01524745;
  (6) 0.05407619, 0.19007428, 0.33220343, 0.13768157, 0.19174639, 0.06745305, 0.02676510;
  (7) 0.08665354, 0.15593597, 0.28460334, 0.14851285, 0.15593597, 0.13366662, 0.03469171;
}
probability ( MediaExp_1 | risk_perception_r ) {
  (1) 0.5985915, 0.4014085;
  (2) 0.4226908, 0.5773092;
  (3) 0.4554613, 0.5445387;
  (4) 0.460478, 0.539522;
  (5) 0.4568215, 0.5431785;
  (6) 0.4888526, 0.5111474;
  (7) 0.5098975, 0.4901025;
}
probability ( MediaExp_4 | risk_perception_r ) {
  (1) 0.7957746, 0.2042254;
  (2) 0.8022088, 0.1977912;
  (3) 0.8216684, 0.1783316;
  (4) 0.8247389, 0.1752611;
  (5) 0.8999386, 0.1000614;
  (6) 0.93474799, 0.06525201;
  (7) 0.96518204, 0.03481796;
}
probability ( MediaExp_7 | risk_perception_r ) {
  (1) 0.5, 0.5;
  (2) 0.6335341, 0.3664659;
  (3) 0.6583598, 0.3416402;
  (4) 0.6976099, 0.3023901;
  (5) 0.7592665, 0.2407335;
  (6) 0.826061, 0.173939;
  (7) 0.878579, 0.121421;
}
probability ( risk_perception_r | shop_groceries_less ) {
  (1) 0.002517994, 0.019364039, 0.081132874, 0.265503487, 0.375002785, 0.210597856, 0.045880964;
  (2) 0.0005825984, 0.0025513792, 0.0405207224, 0.1876167708, 0.3816823031, 0.3147437572, 0.0723024690;
}
probability ( SARS | risk_perception_r ) {
  (1) 0.007042254, 0.992957746;
  (2) 0.05722892, 0.94277108;
  (3) 0.04224107, 0.95775893;
  (4) 0.04220382, 0.95779618;
  (5) 0.03089762, 0.96910238;
  (6) 0.02679353, 0.97320647;
  (7) 0.03729233, 0.96270767;
}
probability ( shop_groceries_less ) {
  table 0.4741163, 0.5258837;
}
probability ( Trustingroups_12 | risk_perception_r ) {
  (1) 0.2985915, 0.2000000, 0.2000000, 0.1014085, 0.2000000;
  (2) 0.07068273, 0.07068273, 0.29558233, 0.28152610, 0.28152610;
  (3) 0.02234005, 0.07430187, 0.28214917, 0.43556027, 0.18564864;
  (4) 0.01714501, 0.07379317, 0.28194222, 0.40511904, 0.22200056;
  (5) 0.01329686, 0.03986826, 0.19734286, 0.46813665, 0.28135536;
  (6) 0.01395016, 0.02899912, 0.17391512, 0.41971495, 0.36342065;
  (7) 0.009968187, 0.017391304, 0.118840580, 0.415765288, 0.438034641;
}
probability ( Trustingroups_6 | risk_perception_r ) {
  (1) 0.298591549, 0.200000000, 0.397183099, 0.002816901, 0.101408451;
  (2) 0.29558233, 0.18313253, 0.32369478, 0.14096386, 0.05662651;
  (3) 0.12873807, 0.26482856, 0.45535525, 0.13616119, 0.01491693;
  (4) 0.1390044, 0.2055331, 0.4597911, 0.1633763, 0.0322951;
  (5) 0.1203640, 0.2344647, 0.4325779, 0.1801496, 0.0324439;
  (6) 0.11706346, 0.21404570, 0.42640338, 0.19620989, 0.04627757;
  (7) 0.17575115, 0.14110993, 0.41081654, 0.22028986, 0.05203252;
}
probability ( Trustingroups_7 | risk_perception_r ) {
  (1) 0.200000000, 0.101408451, 0.594366197, 0.002816901, 0.101408451;
  (2) 0.08473896, 0.07068273, 0.22530120, 0.33775100, 0.28152610;
  (3) 0.01739130, 0.08667374, 0.22523860, 0.42318841, 0.24750795;
  (4) 0.01516891, 0.05007998, 0.24768985, 0.41170603, 0.27535523;
  (5) 0.009389304, 0.029317852, 0.156704254, 0.472825723, 0.331762867;
  (6) 0.006704355, 0.018409109, 0.113719245, 0.447026037, 0.414141253;
  (7) 0.012442559, 0.007493814, 0.103994344, 0.410816543, 0.465252739;
}
