network unknown {
}
variable COVIDeffect_3 {
  type discrete [ 7 ] { 1, 2, 3, 4, 5, 6, 7 };
}
variable COVIDeffect_4 {
  type discrete [ 7 ] { 1, 2, 3, 4, 5, 6, 7 };
}
variable COVIDexp {
  type discrete [ 9 ] { 1, 2, 3, 4, 5, 6, 7, 8, 9 };
}
variable DemEdu {
  type discrete [ 6 ] { 1, 2, 3, 4, 5, 9 };
}
variable DemHealthcare {
  type discrete [ 2 ] { 1, 2 };
}
variable FinitePool_6 {
  type discrete [ 7 ] { 1, 2, 3, 4, 5, 6, 7 };
}
variable Friends_2 {
  type discrete [ 7 ] { 1, 2, 3, 4, 5, 6, 7 };
}
variable Friends_4 {
  type discrete [ 7 ] { 1, 2, 3, 4, 5, 6, 7 };
}
variable GenSocTrust {
  type discrete [ 7 ] { 1, 2, 3, 4, 5, 6, 7 };
}
variable Govresponse_7 {
  type discrete [ 7 ] { 1, 2, 3, 4, 5, 6, 7 };
}
variable KnowledgeCert_1 {
  type discrete [ 7 ] { 1, 2, 3, 4, 5, 6, 7 };
}
variable KnowledgeCert_2 {
  type discrete [ 7 ] { 1, 2, 3, 4, 5, 6, 7 };
}
variable Longitude_1 {
  type discrete [ 7 ] { 1, 2, 3, 4, 5, 6, 7 };
}
variable MediaExp_1 {
  type discrete [ 2 ] { 1, 2 };
}
variable MediaExp_3 {
  type discrete [ 2 ] { 1, 2 };
}
variable MediaExp_5 {
  type discrete [ 2 ] { 1, 2 };
}
variable Personal_4 {
  type discrete [ 7 ] { 1, 2, 3, 4, 5, 6, 7 };
}
variable Personal_7 {
  type discrete [ 7 ] { 1, 2, 3, 4, 5, 6, 7 };
}
variable risk_perception_r {
  type discrete [ 7 ] { 1, 2, 3, 4, 5, 6, 7 };
}
variable SARS {
  type discrete [ 2 ] { 1, 2 };
}
variable Sciunderstand {
  type discrete [ 7 ] { 1, 2, 3, 4, 5, 6, 7 };
}
variable shop_groceries_less {
  type discrete [ 2 ] { 1, 2 };
}
variable Soughtinfo {
  type discrete [ 2 ] { 1, 2 };
}
variable Trustingroups_1 {
  type discrete [ 5 ] { 1, 2, 3, 4, 5 };
}
variable Trustingroups_2 {
  type discrete [ 5 ] { 1, 2, 3, 4, 5 };
}
variable Trustingroups_5 {
  type discrete [ 5 ] { 1, 2, 3, 4, 5 };
}
variable Trustingroups_6 {
  type discrete [ 5 ] { 1, 2, 3, 4, 5 };
}
variable Trustingroups_7 {
  type discrete [ 5 ] { 1, 2, 3, 4, 5 };
}
variable Vaccine_1 {
  type discrete [ 2 ] { 1, 2 };
}
probability ( COVIDeffect_3 | risk_perception_r ) {
  (1) 0.790744467, 0.100603622, 0.002012072, 0.100603622, 0.002012072, 0.002012072, 0.002012072;
  (2) 0.7131219086, 0.1000872854, 0.0430608088, 0.0430608088, 0.0573174280, 0.0002909514, 0.0430608088;
  (3) 0.49858402, 0.16451647, 0.10798196, 0.11826096, 0.06172645, 0.02831970, 0.02061045;
  (4) 0.33286103, 0.14635773, 0.11845030, 0.18243318, 0.12934100, 0.06059343, 0.02996333;
  (5) 0.27960534, 0.15149024, 0.11764851, 0.14504419, 0.16357657, 0.08340391, 0.05923124;
  (6) 0.2255786, 0.1336387, 0.0908095, 0.1347808, 0.1696152, 0.1313545, 0.1142228;
  (7) 0.18685282, 0.12121993, 0.06063572, 0.10607388, 0.18685282, 0.12879295, 0.20957189;
}
probability ( COVIDeffect_4 | risk_perception_r ) {
  (1) 0.987927565, 0.002012072, 0.002012072, 0.002012072, 0.002012072, 0.002012072, 0.002012072;
  (2) 0.9554844341, 0.0002909514, 0.0145475706, 0.0002909514, 0.0145475706, 0.0002909514, 0.0145475706;
  (3) 0.809523810, 0.056586952, 0.025749948, 0.064296203, 0.023180197, 0.007761695, 0.012901196;
  (4) 0.731052398, 0.065358115, 0.042896038, 0.098710896, 0.036089348, 0.017030616, 0.008862588;
  (5) 0.76305858, 0.07574923, 0.03505858, 0.04432477, 0.04069887, 0.02337513, 0.01773484;
  (6) 0.75837354, 0.08338578, 0.02856444, 0.03655921, 0.02913549, 0.02742232, 0.03655921;
  (7) 0.77250013, 0.07073309, 0.03034362, 0.02277059, 0.03539230, 0.01772191, 0.05053835;
}
probability ( COVIDexp | risk_perception_r ) {
  (1) 0.001564945, 0.001564945, 0.001564945, 0.001564945, 0.001564945, 0.001564945, 0.001564945, 0.987480438, 0.001564945;
  (2) 0.0287395338, 0.0002262955, 0.0144829147, 0.0002262955, 0.0002262955, 0.0144829147, 0.0002262955, 0.9411631591, 0.0002262955;
  (3) 1.288954e-02, 2.573829e-02, 3.344754e-02, 7.750041e-03, 5.180290e-03, 4.078969e-05, 4.078969e-05, 8.763257e-01, 3.858705e-02;
  (4) 0.0163468603, 0.0272375643, 0.0354055923, 0.0074981633, 0.0034141493, 0.0006914733, 0.0006914733, 0.8365530057, 0.0721617183;
  (5) 9.272582e-03, 3.908553e-02, 3.304237e-02, 9.272582e-03, 8.121503e-04, 1.617906e-03, 6.394884e-06, 7.997186e-01, 1.071719e-01;
  (6) 0.004006454, 0.058256739, 0.048548794, 0.005719621, 0.000580120, 0.000580120, 0.000580120, 0.740668226, 0.141059807;
  (7) 2.564411e-03, 1.439276e-01, 2.780783e-02, 1.266178e-02, 4.006892e-05, 4.006892e-05, 4.006892e-05, 6.513203e-01, 1.615979e-01;
}
probability ( DemEdu | risk_perception_r ) {
  (1) 0.002347418, 0.100938967, 0.100938967, 0.396713615, 0.396713615, 0.002347418;
  (2) 0.04310930, 0.08587916, 0.34249830, 0.42803802, 0.07162254, 0.02885268;
  (3) 0.04888644, 0.11826970, 0.33669848, 0.37524474, 0.10542095, 0.01547969;
  (4) 0.04834371, 0.12049462, 0.32673733, 0.36757747, 0.10960392, 0.02724297;
  (5) 0.05036930, 0.10757794, 0.31304556, 0.38798082, 0.11845564, 0.02257074;
  (6) 0.04912438, 0.10394572, 0.29296514, 0.40717627, 0.12735900, 0.01942949;
  (7) 0.03792523, 0.07831470, 0.33579757, 0.40143046, 0.13385022, 0.01268181;
}
probability ( DemHealthcare | risk_perception_r ) {
  (1) 0.007042254, 0.992957746;
  (2) 0.08655804, 0.91344196;
  (3) 0.07984581, 0.92015419;
  (4) 0.06335084, 0.93664916;
  (5) 0.06690647, 0.93309353;
  (6) 0.07142274, 0.92857726;
  (7) 0.08853228, 0.91146772;
}
probability ( FinitePool_6 | risk_perception_r ) {
  (1) 0.396378270, 0.002012072, 0.100603622, 0.100603622, 0.199195171, 0.002012072, 0.199195171;
  (2) 0.35670643, 0.18562700, 0.10008729, 0.11434390, 0.05731743, 0.08583067, 0.10008729;
  (3) 0.15680722, 0.14395846, 0.15680722, 0.22105098, 0.14138871, 0.08228446, 0.09770296;
  (4) 0.07420681, 0.11028227, 0.13070234, 0.25866811, 0.19808857, 0.10619826, 0.12185364;
  (5) 0.05721686, 0.09951901, 0.12610894, 0.19782117, 0.23649743, 0.15793628, 0.12490031;
  (6) 0.06625411, 0.09937534, 0.11193856, 0.18503368, 0.19702585, 0.15362562, 0.18674685;
  (7) 0.07073309, 0.14141466, 0.07830612, 0.16413374, 0.18180413, 0.14646335, 0.21714492;
}
probability ( Friends_2 | risk_perception_r ) {
  (1) 0.396378270, 0.199195171, 0.002012072, 0.199195171, 0.002012072, 0.199195171, 0.002012072;
  (2) 0.21414024, 0.15711376, 0.08583067, 0.18562700, 0.05731743, 0.07157405, 0.22839686;
  (3) 0.21848123, 0.14395846, 0.19278372, 0.17479547, 0.13110971, 0.05658695, 0.08228446;
  (4) 0.08645885, 0.11096294, 0.15656776, 0.27432350, 0.17971051, 0.10755959, 0.08441685;
  (5) 0.03586434, 0.06970606, 0.10959096, 0.23931757, 0.25261254, 0.17324563, 0.11966290;
  (6) 0.02799338, 0.05311983, 0.06796728, 0.13649395, 0.22614969, 0.23814185, 0.25013402;
  (7) 0.03034362, 0.03034362, 0.05306270, 0.07325743, 0.13889032, 0.17423111, 0.49987121;
}
probability ( Friends_4 | risk_perception_r ) {
  (1) 0.790744467, 0.100603622, 0.002012072, 0.002012072, 0.002012072, 0.002012072, 0.100603622;
  (2) 0.32819319, 0.19988362, 0.12860052, 0.11434390, 0.08583067, 0.02880419, 0.11434390;
  (3) 0.27244598, 0.22876023, 0.20049297, 0.15680722, 0.07457520, 0.04116845, 0.02574995;
  (4) 0.15929044, 0.18107185, 0.17630716, 0.27092015, 0.12934100, 0.04629938, 0.03677002;
  (5) 0.10274203, 0.15149024, 0.16196506, 0.26751901, 0.19056937, 0.08018088, 0.04553340;
  (6) 0.08966739, 0.13992029, 0.13306762, 0.20045218, 0.19531268, 0.13763606, 0.10394378;
  (7) 0.07578177, 0.10859822, 0.11869558, 0.16918242, 0.15403637, 0.11364690, 0.26005873;
}
probability ( GenSocTrust | risk_perception_r ) {
  (1) 0.100603622, 0.297786720, 0.100603622, 0.199195171, 0.100603622, 0.199195171, 0.002012072;
  (2) 0.19988362, 0.14285714, 0.10008729, 0.25691010, 0.10008729, 0.11434390, 0.08583067;
  (3) 0.14395846, 0.11569121, 0.17479547, 0.22362073, 0.18507447, 0.08999371, 0.06686595;
  (4) 0.11708896, 0.11096294, 0.17902984, 0.24233206, 0.20761794, 0.09803023, 0.04493805;
  (5) 0.12610894, 0.13215211, 0.15592189, 0.20265570, 0.23126002, 0.11563412, 0.03626721;
  (6) 0.14677295, 0.14848612, 0.16504673, 0.16733096, 0.20730485, 0.12393073, 0.04112766;
  (7) 0.23733965, 0.12374427, 0.15403637, 0.14646335, 0.17927979, 0.10859822, 0.05053835;
}
probability ( Govresponse_7 | shop_groceries_less ) {
  (1) 0.03230667, 0.04381379, 0.08249047, 0.20715085, 0.26404712, 0.22345259, 0.14673851;
  (2) 0.01833738, 0.02415218, 0.05467987, 0.14248333, 0.22737939, 0.27825888, 0.25470895;
}
probability ( KnowledgeCert_1 | risk_perception_r ) {
  (1) 0.100603622, 0.199195171, 0.199195171, 0.100603622, 0.100603622, 0.002012072, 0.297786720;
  (2) 0.14285714, 0.17137038, 0.21414024, 0.17137038, 0.11434390, 0.07157405, 0.11434390;
  (3) 0.07457520, 0.17222572, 0.34696874, 0.20563247, 0.13881896, 0.04630795, 0.01547095;
  (4) 0.04902206, 0.18855920, 0.31380230, 0.25934878, 0.12525699, 0.04834139, 0.01566928;
  (5) 0.04190750, 0.18412333, 0.32633916, 0.20668448, 0.17526002, 0.05117369, 0.01451182;
  (6) 0.05426194, 0.19131529, 0.33236604, 0.13535184, 0.19074424, 0.06853833, 0.02742232;
  (7) 0.08840348, 0.15151203, 0.28782649, 0.14393900, 0.15908505, 0.13384164, 0.03539230;
}
probability ( KnowledgeCert_2 | risk_perception_r ) {
  (1) 0.100603622, 0.100603622, 0.100603622, 0.100603622, 0.199195171, 0.002012072, 0.396378270;
  (2) 0.1286005, 0.1000873, 0.1286005, 0.2996800, 0.1000873, 0.1000873, 0.1428571;
  (3) 0.04373820, 0.09513321, 0.28529473, 0.26730648, 0.15937697, 0.09513321, 0.05401720;
  (4) 0.03200533, 0.12525699, 0.25322276, 0.28589487, 0.17562649, 0.08033283, 0.04766072;
  (5) 0.02861254, 0.11442549, 0.26751901, 0.22159096, 0.20305858, 0.11200822, 0.05278520;
  (6) 0.04398294, 0.11879123, 0.22672074, 0.14505979, 0.20330746, 0.15191245, 0.11022539;
  (7) 0.05306270, 0.08840348, 0.19695018, 0.14393900, 0.17170676, 0.16160940, 0.18432847;
}
probability ( Longitude_1 | risk_perception_r ) {
  (1) 0.889336016, 0.002012072, 0.002012072, 0.100603622, 0.002012072, 0.002012072, 0.002012072;
  (2) 0.6703520512, 0.1713703811, 0.0715740471, 0.0145475706, 0.0715740471, 0.0002909514, 0.0002909514;
  (3) 0.19021397, 0.17222572, 0.22362073, 0.20563247, 0.09513321, 0.05658695, 0.05658695;
  (4) 0.04425738, 0.07556815, 0.13955104, 0.23960938, 0.23960938, 0.14295438, 0.11845030;
  (5) 0.02015211, 0.03344707, 0.08058376, 0.15995067, 0.27315930, 0.22763412, 0.20507297;
  (6) 0.00971960, 0.01714332, 0.03541710, 0.09594900, 0.19531268, 0.23357341, 0.41288488;
  (7) 0.007624543, 0.015197568, 0.032867961, 0.083354799, 0.146463346, 0.184328474, 0.530163309;
}
probability ( MediaExp_1 | risk_perception_r ) {
  (1) 0.5985915, 0.4014085;
  (2) 0.4287169, 0.5712831;
  (3) 0.4421806, 0.5578194;
  (4) 0.4567775, 0.5432225;
  (5) 0.4556835, 0.5443165;
  (6) 0.484867, 0.515133;
  (7) 0.5126217, 0.4873783;
}
probability ( MediaExp_3 | risk_perception_r ) {
  (1) 0.7957746, 0.2042254;
  (2) 0.8136456, 0.1863544;
  (3) 0.8636197, 0.1363803;
  (4) 0.8747083, 0.1252917;
  (5) 0.93591367, 0.06408633;
  (6) 0.96512482, 0.03487518;
  (7) 0.97205193, 0.02794807;
}
probability ( MediaExp_5 | risk_perception_r ) {
  (1) 0.7957746, 0.2042254;
  (2) 0.5285132, 0.4714868;
  (3) 0.5424009, 0.4575991;
  (4) 0.5670459, 0.4329541;
  (5) 0.615223, 0.384777;
  (6) 0.6453337, 0.3546663;
  (7) 0.7398125, 0.2601875;
}
probability ( Personal_4 | risk_perception_r ) {
  (1) 0.593561368, 0.002012072, 0.100603622, 0.199195171, 0.002012072, 0.100603622, 0.002012072;
  (2) 0.37096305, 0.24265348, 0.07157405, 0.11434390, 0.05731743, 0.01454757, 0.12860052;
  (3) 0.28529473, 0.19792322, 0.15423747, 0.17993497, 0.10798196, 0.04630795, 0.02831970;
  (4) 0.17086181, 0.17086181, 0.14771906, 0.27772684, 0.14295438, 0.05038340, 0.03949269;
  (5) 0.11160534, 0.15310175, 0.14101542, 0.25422405, 0.19016650, 0.09669887, 0.05318808;
  (6) 0.1016596, 0.1279281, 0.1296413, 0.1930285, 0.1930285, 0.1353518, 0.1193623;
  (7) 0.08840348, 0.12626861, 0.08840348, 0.14141466, 0.17423111, 0.14141466, 0.23986399;
}
probability ( Personal_7 | risk_perception_r ) {
  (1) 0.593561368, 0.100603622, 0.002012072, 0.002012072, 0.100603622, 0.100603622, 0.100603622;
  (2) 0.49927262, 0.11434390, 0.10008729, 0.11434390, 0.02880419, 0.07157405, 0.07157405;
  (3) 0.39836375, 0.19535347, 0.14652821, 0.13367946, 0.05658695, 0.03345920, 0.03602895;
  (4) 0.32945769, 0.17290382, 0.14159304, 0.20761794, 0.08101350, 0.03404734, 0.03336667;
  (5) 0.32311614, 0.17042549, 0.14383556, 0.18412333, 0.09508736, 0.04271326, 0.04069887;
  (6) 0.33807659, 0.17075729, 0.11879123, 0.16904412, 0.08281472, 0.05540405, 0.06511200;
  (7) 0.38122714, 0.15656071, 0.09345217, 0.14393900, 0.06316006, 0.02024625, 0.14141466;
}
probability ( risk_perception_r | shop_groceries_less ) {
  (1) 0.002579968, 0.019520994, 0.080892258, 0.263407840, 0.375602183, 0.211945478, 0.046051280;
  (2) 0.000602247, 0.002637427, 0.039561398, 0.187548024, 0.380017860, 0.316345814, 0.073287230;
}
probability ( SARS | risk_perception_r ) {
  (1) 0.007042254, 0.992957746;
  (2) 0.05804481, 0.94195519;
  (3) 0.04129956, 0.95870044;
  (4) 0.04156943, 0.95843057;
  (5) 0.03105036, 0.96894964;
  (6) 0.02630935, 0.97369065;
  (7) 0.03804544, 0.96195456;
}
probability ( Sciunderstand | risk_perception_r ) {
  (1) 0.199195171, 0.002012072, 0.100603622, 0.199195171, 0.100603622, 0.100603622, 0.297786720;
  (2) 0.14285714, 0.15711376, 0.11434390, 0.21414024, 0.12860052, 0.15711376, 0.08583067;
  (3) 0.02574995, 0.07200545, 0.10027271, 0.23903923, 0.26987623, 0.17993497, 0.11312146;
  (4) 0.02179530, 0.05310607, 0.08986220, 0.23484470, 0.30018892, 0.22191199, 0.07829083;
  (5) 0.01330319, 0.04351901, 0.10274203, 0.19701542, 0.32714491, 0.24737513, 0.06890031;
  (6) 0.02114071, 0.04855138, 0.11365173, 0.16790201, 0.31523437, 0.23300235, 0.10051745;
  (7) 0.02781928, 0.07578177, 0.10102519, 0.14898769, 0.28277781, 0.19190150, 0.17170676;
}
probability ( shop_groceries_less ) {
  table 0.4763246, 0.5236754;
}
probability ( Soughtinfo | risk_perception_r ) {
  (1) 0.3028169, 0.6971831;
  (2) 0.4714868, 0.5285132;
  (3) 0.5449706, 0.4550294;
  (4) 0.6208187, 0.3791813;
  (5) 0.7090935, 0.2909065;
  (6) 0.7949502, 0.2050498;
  (7) 0.8281644, 0.1718356;
}
probability ( Trustingroups_1 | risk_perception_r ) {
  (1) 0.002816901, 0.002816901, 0.200000000, 0.298591549, 0.495774648;
  (2) 0.04317719, 0.10020367, 0.21425662, 0.17148676, 0.47087576;
  (3) 0.02834068, 0.04118943, 0.14140969, 0.28274596, 0.50631424;
  (4) 0.01499417, 0.04085959, 0.15521198, 0.31653053, 0.47240373;
  (5) 0.01411223, 0.02337842, 0.09992518, 0.33480288, 0.52778129;
  (6) 0.006868984, 0.018861152, 0.088529940, 0.290683635, 0.595056290;
  (7) 0.01269383, 0.02783988, 0.07580238, 0.26512802, 0.61853588;
}
probability ( Trustingroups_2 | risk_perception_r ) {
  (1) 0.002816901, 0.002816901, 0.594366197, 0.397183099, 0.002816901;
  (2) 0.1144603, 0.1572301, 0.3140530, 0.2285132, 0.1857434;
  (3) 0.06431718, 0.17224670, 0.41380323, 0.26218796, 0.08744493;
  (4) 0.04222093, 0.14023726, 0.44789965, 0.31312719, 0.05651497;
  (5) 0.03586763, 0.12732086, 0.43149353, 0.34366619, 0.06165180;
  (6) 0.03770599, 0.13421439, 0.40889215, 0.34493392, 0.07425355;
  (7) 0.08337541, 0.14395961, 0.37872340, 0.31813920, 0.07580238;
}
probability ( Trustingroups_5 | risk_perception_r ) {
  (1) 0.397183099, 0.101408451, 0.397183099, 0.101408451, 0.002816901;
  (2) 0.32830957, 0.22851324, 0.27128310, 0.12871690, 0.04317719;
  (3) 0.27246696, 0.29045521, 0.34441997, 0.07459618, 0.01806167;
  (4) 0.20830416, 0.31925321, 0.37302606, 0.08850642, 0.01091015;
  (5) 0.22159424, 0.33399712, 0.35373813, 0.07897554, 0.01169496;
  (6) 0.24499918, 0.33522597, 0.32837331, 0.07368249, 0.01771904;
  (7) 0.29289578, 0.27017670, 0.34590696, 0.08085106, 0.01016949;
}
probability ( Trustingroups_6 | risk_perception_r ) {
  (1) 0.298591549, 0.200000000, 0.397183099, 0.002816901, 0.101408451;
  (2) 0.29979633, 0.18574338, 0.31405295, 0.14297352, 0.05743381;
  (3) 0.12856094, 0.26475771, 0.45234949, 0.14140969, 0.01292217;
  (4) 0.13887592, 0.20762349, 0.46015169, 0.16065733, 0.03269156;
  (5) 0.1172489, 0.2356950, 0.4339108, 0.1805007, 0.0326446;
  (6) 0.11651167, 0.21130690, 0.42830804, 0.19645946, 0.04741393;
  (7) 0.17677605, 0.13891093, 0.41406419, 0.21968987, 0.05055896;
}
probability ( Trustingroups_7 | risk_perception_r ) {
  (1) 0.200000000, 0.101408451, 0.594366197, 0.002816901, 0.101408451;
  (2) 0.08594705, 0.07169043, 0.22851324, 0.32830957, 0.28553971;
  (3) 0.01806167, 0.08744493, 0.23135095, 0.41637298, 0.24676946;
  (4) 0.01567483, 0.04834695, 0.24710229, 0.41590821, 0.27296772;
  (5) 0.00887482, 0.03022734, 0.15834245, 0.47137842, 0.33117698;
  (6) 0.006868984, 0.018290096, 0.114227443, 0.445439713, 0.415173764;
  (7) 0.01269383, 0.00764515, 0.10357014, 0.41658853, 0.45950234;
}
probability ( Vaccine_1 | risk_perception_r ) {
  (1) 0.2042254, 0.7957746;
  (2) 0.4857434, 0.5142566;
  (3) 0.6349119, 0.3650881;
  (4) 0.7501459, 0.2498541;
  (5) 0.819482, 0.180518;
  (6) 0.8606216, 0.1393784;
  (7) 0.8786513, 0.1213487;
}
