network unknown {
}
variable COVIDeffect_4 {
  type discrete [ 7 ] { 1, 2, 3, 4, 5, 6, 7 };
}
variable DemEdu {
  type discrete [ 6 ] { 1, 2, 3, 4, 5, 9 };
}
variable DemGen {
  type discrete [ 4 ] { 1, 2, 3, 4 };
}
variable DemHealthcare {
  type discrete [ 2 ] { 1, 2 };
}
variable Friends_2 {
  type discrete [ 7 ] { 1, 2, 3, 4, 5, 6, 7 };
}
variable GenSocTrust {
  type discrete [ 7 ] { 1, 2, 3, 4, 5, 6, 7 };
}
variable Govresponse_7 {
  type discrete [ 7 ] { 1, 2, 3, 4, 5, 6, 7 };
}
variable Govresponse_8 {
  type discrete [ 7 ] { 1, 2, 3, 4, 5, 6, 7 };
}
variable Longitude_1 {
  type discrete [ 7 ] { 1, 2, 3, 4, 5, 6, 7 };
}
variable Personal_3 {
  type discrete [ 7 ] { 1, 2, 3, 4, 5, 6, 7 };
}
variable risk_perception_r {
  type discrete [ 7 ] { 1, 2, 3, 4, 5, 6, 7 };
}
variable Trustingroups_11 {
  type discrete [ 5 ] { 1, 2, 3, 4, 5 };
}
variable Trustingroups_7 {
  type discrete [ 5 ] { 1, 2, 3, 4, 5 };
}
variable work_from_home {
  type discrete [ 2 ] { 1, 2 };
}
probability ( COVIDeffect_4 | work_from_home ) {
  (1) 0.75760526, 0.07009005, 0.03845218, 0.05792164, 0.03626186, 0.02141640, 0.01825262;
  (2) 0.75840253, 0.07987347, 0.02728351, 0.04824041, 0.03361012, 0.02293397, 0.02965599;
}
probability ( DemEdu | risk_perception_r ) {
  (1) 0.00000000, 0.09090909, 0.09090909, 0.45454545, 0.36363636, 0.00000000;
  (2) 0.04225352, 0.08450704, 0.35211268, 0.42253521, 0.07042254, 0.02816901;
  (3) 0.05316456, 0.11898734, 0.32911392, 0.37215190, 0.11139241, 0.01518987;
  (4) 0.04765101, 0.12013423, 0.32684564, 0.37114094, 0.10805369, 0.02617450;
  (5) 0.05015924, 0.10867834, 0.31130573, 0.38893312, 0.11823248, 0.02269108;
  (6) 0.04880817, 0.10442679, 0.29284904, 0.40635641, 0.12769580, 0.01986379;
  (7) 0.03526448, 0.07808564, 0.33753149, 0.40050378, 0.13602015, 0.01259446;
}
probability ( DemGen | risk_perception_r ) {
  (1) 0.2727273, 0.7272727, 0.0000000, 0.0000000;
  (2) 0.4084507, 0.5915493, 0.0000000, 0.0000000;
  (3) 0.3898734, 0.6101266, 0.0000000, 0.0000000;
  (4) 0.4785234899, 0.5208053691, 0.0006711409, 0.0000000000;
  (5) 0.4852707006, 0.5135350318, 0.0007961783, 0.0003980892;
  (6) 0.554483541, 0.444381385, 0.001135074, 0.000000000;
  (7) 0.627204, 0.372796, 0.000000, 0.000000;
}
probability ( DemHealthcare | risk_perception_r ) {
  (1) 0.0, 1.0;
  (2) 0.08450704, 0.91549296;
  (3) 0.09113924, 0.90886076;
  (4) 0.06308725, 0.93691275;
  (5) 0.06807325, 0.93192675;
  (6) 0.07207719, 0.92792281;
  (7) 0.08816121, 0.91183879;
}
probability ( Friends_2 | risk_perception_r ) {
  (1) 0.36363636, 0.18181818, 0.09090909, 0.18181818, 0.00000000, 0.18181818, 0.00000000;
  (2) 0.21126761, 0.16901408, 0.08450704, 0.18309859, 0.05633803, 0.07042254, 0.22535211;
  (3) 0.2151899, 0.1443038, 0.1974684, 0.1721519, 0.1316456, 0.0556962, 0.0835443;
  (4) 0.08724832, 0.11208054, 0.15637584, 0.27449664, 0.17785235, 0.10872483, 0.08322148;
  (5) 0.03582803, 0.06886943, 0.10867834, 0.23885350, 0.25318471, 0.17356688, 0.12101911;
  (6) 0.02724177, 0.05391600, 0.06810443, 0.13620885, 0.22701476, 0.23779796, 0.24971623;
  (7) 0.03022670, 0.03022670, 0.05289673, 0.07304786, 0.13602015, 0.17380353, 0.50377834;
}
probability ( GenSocTrust | risk_perception_r ) {
  (1) 0.09090909, 0.27272727, 0.18181818, 0.18181818, 0.09090909, 0.18181818, 0.00000000;
  (2) 0.19718310, 0.14084507, 0.09859155, 0.26760563, 0.09859155, 0.11267606, 0.08450704;
  (3) 0.14430380, 0.11645570, 0.17468354, 0.22278481, 0.18481013, 0.08860759, 0.06835443;
  (4) 0.11744966, 0.11208054, 0.17785235, 0.24228188, 0.20671141, 0.09731544, 0.04630872;
  (5) 0.12579618, 0.13216561, 0.15684713, 0.20222930, 0.23089172, 0.11624204, 0.03582803;
  (6) 0.14755959, 0.14926220, 0.16458570, 0.16572077, 0.20885358, 0.12315551, 0.04086266;
  (7) 0.23929471, 0.12342569, 0.15365239, 0.14609572, 0.17884131, 0.10831234, 0.05037783;
}
probability ( Govresponse_7 | work_from_home ) {
  (1) 0.02798734, 0.03820881, 0.07958141, 0.19299100, 0.24872232, 0.23971769, 0.17279143;
  (2) 0.02016607, 0.02609727, 0.05100830, 0.14511665, 0.23724792, 0.27283511, 0.24752867;
}
probability ( Govresponse_8 | work_from_home ) {
  (1) 0.05913848, 0.07325383, 0.10270139, 0.18982721, 0.25091263, 0.20540277, 0.11876369;
  (2) 0.06247529, 0.07671016, 0.07512851, 0.18268090, 0.24634243, 0.20838276, 0.14827995;
}
probability ( Longitude_1 | risk_perception_r ) {
  (1) 0.81818182, 0.00000000, 0.00000000, 0.09090909, 0.09090909, 0.00000000, 0.00000000;
  (2) 0.66197183, 0.16901408, 0.07042254, 0.01408451, 0.08450704, 0.00000000, 0.00000000;
  (3) 0.19493671, 0.17215190, 0.22278481, 0.20253165, 0.09620253, 0.05569620, 0.05569620;
  (4) 0.04362416, 0.07516779, 0.13892617, 0.24026846, 0.24026846, 0.14295302, 0.11879195;
  (5) 0.02030255, 0.03383758, 0.07961783, 0.16003185, 0.27189490, 0.22770701, 0.20660828;
  (6) 0.009648127, 0.017026107, 0.035187287, 0.095913734, 0.196367764, 0.234392736, 0.411464245;
  (7) 0.007556675, 0.015113350, 0.032745592, 0.083123426, 0.146095718, 0.188916877, 0.526448363;
}
probability ( Personal_3 | risk_perception_r ) {
  (1) 0.63636364, 0.09090909, 0.18181818, 0.00000000, 0.00000000, 0.00000000, 0.09090909;
  (2) 0.52112676, 0.12676056, 0.11267606, 0.07042254, 0.07042254, 0.02816901, 0.07042254;
  (3) 0.37974684, 0.19493671, 0.14177215, 0.15189873, 0.07848101, 0.02025316, 0.03291139;
  (4) 0.24026846, 0.18926174, 0.14228188, 0.24026846, 0.10738255, 0.05302013, 0.02751678;
  (5) 0.22253185, 0.17993631, 0.13614650, 0.22492038, 0.12738854, 0.06687898, 0.04219745;
  (6) 0.23382520, 0.16174801, 0.12315551, 0.18955732, 0.13223610, 0.08456300, 0.07491487;
  (7) 0.22670025, 0.17128463, 0.09319899, 0.13853904, 0.11335013, 0.08060453, 0.17632242;
}
probability ( risk_perception_r | work_from_home ) {
  (1) 0.002190314, 0.013871988, 0.068873205, 0.244341689, 0.382574836, 0.237770747, 0.050377221;
  (2) 0.0007908264, 0.0055357849, 0.0442862792, 0.1921708185, 0.3716884144, 0.3103993673, 0.0751285093;
}
probability ( Trustingroups_11 | risk_perception_r ) {
  (1) 0.36363636, 0.09090909, 0.27272727, 0.00000000, 0.27272727;
  (2) 0.38028169, 0.16901408, 0.23943662, 0.09859155, 0.11267606;
  (3) 0.24303797, 0.21265823, 0.29367089, 0.19746835, 0.05316456;
  (4) 0.14765101, 0.20671141, 0.36107383, 0.21744966, 0.06711409;
  (5) 0.16321656, 0.21934713, 0.31608280, 0.23964968, 0.06170382;
  (6) 0.21112372, 0.22587968, 0.27298524, 0.21906924, 0.07094211;
  (7) 0.27204030, 0.22921914, 0.23425693, 0.19395466, 0.07052897;
}
probability ( Trustingroups_7 | risk_perception_r ) {
  (1) 0.18181818, 0.09090909, 0.54545455, 0.09090909, 0.09090909;
  (2) 0.08450704, 0.07042254, 0.22535211, 0.33802817, 0.28169014;
  (3) 0.01772152, 0.08860759, 0.22784810, 0.41518987, 0.25063291;
  (4) 0.01543624, 0.04966443, 0.24832215, 0.41275168, 0.27382550;
  (5) 0.009156051, 0.029856688, 0.159235669, 0.471735669, 0.330015924;
  (6) 0.006810443, 0.018161180, 0.115777526, 0.446083995, 0.413166856;
  (7) 0.012594458, 0.007556675, 0.103274559, 0.413098237, 0.463476071;
}
probability ( work_from_home ) {
  table 0.6190118, 0.3809882;
}
