network unknown {
}
variable COVIDexp {
  type discrete [ 9 ] { 1, 2, 3, 4, 5, 6, 7, 8, 9 };
}
variable Friends_2 {
  type discrete [ 7 ] { 1, 2, 3, 4, 5, 6, 7 };
}
variable Govresponse_7 {
  type discrete [ 7 ] { 1, 2, 3, 4, 5, 6, 7 };
}
variable Govresponse_8 {
  type discrete [ 7 ] { 1, 2, 3, 4, 5, 6, 7 };
}
variable Longitude_1 {
  type discrete [ 7 ] { 1, 2, 3, 4, 5, 6, 7 };
}
variable MediaExp_3 {
  type discrete [ 2 ] { 1, 2 };
}
variable Personal_1 {
  type discrete [ 7 ] { 1, 2, 3, 4, 5, 6, 7 };
}
variable protection {
  type discrete [ 2 ] { 1, 2 };
}
variable risk_perception_r {
  type discrete [ 7 ] { 1, 2, 3, 4, 5, 6, 7 };
}
variable Trustingroups_3 {
  type discrete [ 5 ] { 1, 2, 3, 4, 5 };
}
probability ( COVIDexp | risk_perception_r ) {
  (1) 0.0, 0.0, 0.0, 0.0, 0.0, 0.0, 0.0, 1.0, 0.0;
  (2) 0.02816901, 0.00000000, 0.01408451, 0.00000000, 0.00000000, 0.01408451, 0.00000000, 0.94366197, 0.00000000;
  (3) 0.012254902, 0.029411765, 0.031862745, 0.007352941, 0.004901961, 0.000000000, 0.000000000, 0.872549020, 0.041666667;
  (4) 0.0163719712, 0.0268500327, 0.0379829731, 0.0085134250, 0.0032743942, 0.0006548788, 0.0006548788, 0.8349705305, 0.0707269155;
  (5) 0.009331260, 0.040435459, 0.034214619, 0.008942457, 0.000777605, 0.001555210, 0.000000000, 0.797045101, 0.107698289;
  (6) 0.0038888889, 0.0577777778, 0.0505555556, 0.0055555556, 0.0005555556, 0.0011111111, 0.0005555556, 0.7366666667, 0.1433333333;
  (7) 0.00245098, 0.14460784, 0.02696078, 0.01225490, 0.00000000, 0.00000000, 0.00000000, 0.65196078, 0.16176471;
}
probability ( Friends_2 | risk_perception_r ) {
  (1) 0.36363636, 0.18181818, 0.09090909, 0.18181818, 0.00000000, 0.18181818, 0.00000000;
  (2) 0.21126761, 0.16901408, 0.08450704, 0.18309859, 0.05633803, 0.07042254, 0.22535211;
  (3) 0.21323529, 0.14705882, 0.19117647, 0.17401961, 0.13480392, 0.05392157, 0.08578431;
  (4) 0.08775377, 0.11263916, 0.15455141, 0.27439424, 0.17943680, 0.10674525, 0.08447937;
  (5) 0.03654743, 0.06881804, 0.10847589, 0.23678072, 0.25349922, 0.17301711, 0.12286159;
  (6) 0.02666667, 0.05222222, 0.06888889, 0.13777778, 0.22555556, 0.23833333, 0.25055556;
  (7) 0.02941176, 0.02941176, 0.05147059, 0.07843137, 0.13480392, 0.16911765, 0.50735294;
}
probability ( Govresponse_7 | protection ) {
  (1) 0.04523646, 0.05551748, 0.10418095, 0.21247430, 0.22755312, 0.20150788, 0.15352981;
  (2) 0.01929562, 0.02716373, 0.05844886, 0.16223305, 0.24840764, 0.26826527, 0.21618584;
}
probability ( Govresponse_8 | protection ) {
  (1) 0.06854010, 0.07539411, 0.11994517, 0.20904729, 0.24674435, 0.18163125, 0.09869774;
  (2) 0.05844886, 0.07362308, 0.08336456, 0.18134133, 0.24953166, 0.21356313, 0.14012739;
}
probability ( Longitude_1 | risk_perception_r ) {
  (1) 0.81818182, 0.00000000, 0.00000000, 0.09090909, 0.09090909, 0.00000000, 0.00000000;
  (2) 0.66197183, 0.16901408, 0.07042254, 0.01408451, 0.08450704, 0.00000000, 0.00000000;
  (3) 0.19117647, 0.17156863, 0.21813725, 0.20588235, 0.10049020, 0.05882353, 0.05392157;
  (4) 0.04322200, 0.07400131, 0.13883432, 0.23968566, 0.23903078, 0.14603798, 0.11918795;
  (5) 0.01982893, 0.03265941, 0.07970451, 0.16135303, 0.27138414, 0.22628305, 0.20878694;
  (6) 0.009444444, 0.017222222, 0.035000000, 0.095000000, 0.195555556, 0.232777778, 0.415000000;
  (7) 0.007352941, 0.014705882, 0.031862745, 0.080882353, 0.142156863, 0.191176471, 0.531862745;
}
probability ( MediaExp_3 | risk_perception_r ) {
  (1) 0.8181818, 0.1818182;
  (2) 0.8028169, 0.1971831;
  (3) 0.8676471, 0.1323529;
  (4) 0.8722986, 0.1277014;
  (5) 0.93273717, 0.06726283;
  (6) 0.96388889, 0.03611111;
  (7) 0.97303922, 0.02696078;
}
probability ( Personal_1 | risk_perception_r ) {
  (1) 0.54545455, 0.18181818, 0.09090909, 0.09090909, 0.09090909, 0.00000000, 0.00000000;
  (2) 0.42253521, 0.16901408, 0.07042254, 0.14084507, 0.07042254, 0.04225352, 0.08450704;
  (3) 0.28676471, 0.22549020, 0.14215686, 0.18137255, 0.08823529, 0.04166667, 0.03431373;
  (4) 0.18009168, 0.18467583, 0.17616241, 0.25933202, 0.12442698, 0.04191225, 0.03339882;
  (5) 0.11741835, 0.19167963, 0.16951788, 0.25933126, 0.15046656, 0.06609642, 0.04548989;
  (6) 0.10500000, 0.16888889, 0.15111111, 0.22944444, 0.16000000, 0.11111111, 0.07444444;
  (7) 0.12254902, 0.14215686, 0.14215686, 0.19607843, 0.13235294, 0.08578431, 0.17892157;
}
probability ( protection ) {
  table 0.2146535, 0.7853465;
}
probability ( risk_perception_r | protection ) {
  (1) 0.002741604, 0.024674435, 0.102810144, 0.289239205, 0.366004112, 0.169979438, 0.044551062;
  (2) 0.001311353, 0.006556763, 0.048332709, 0.207006369, 0.381790933, 0.290745598, 0.064256276;
}
probability ( Trustingroups_3 | risk_perception_r ) {
  (1) 0.00000000, 0.27272727, 0.36363636, 0.09090909, 0.27272727;
  (2) 0.09859155, 0.18309859, 0.22535211, 0.32394366, 0.16901408;
  (3) 0.04166667, 0.11029412, 0.41666667, 0.34803922, 0.08333333;
  (4) 0.02554028, 0.08316961, 0.40602489, 0.38113949, 0.10412574;
  (5) 0.02643857, 0.07231726, 0.37208398, 0.42379471, 0.10536547;
  (6) 0.02111111, 0.07888889, 0.32833333, 0.43000000, 0.14166667;
  (7) 0.04901961, 0.07843137, 0.31372549, 0.41421569, 0.14460784;
}
