net 
{ 
}
node COVIDeffect_3 
{
  states = ( "1" "2" "3" "4" "5" "6" "7" );
}
node COVIDeffect_4 
{
  states = ( "1" "2" "3" "4" "5" "6" "7" );
}
node COVIDexp 
{
  states = ( "1" "2" "3" "4" "5" "6" "7" "8" "9" );
}
node DemEdu 
{
  states = ( "1" "2" "3" "4" "5" "9" );
}
node DemHealthcare 
{
  states = ( "1" "2" );
}
node dine_out_less 
{
  states = ( "1" "2" );
}
node FinitePool_6 
{
  states = ( "1" "2" "3" "4" "5" "6" "7" );
}
node Friends_2 
{
  states = ( "1" "2" "3" "4" "5" "6" "7" );
}
node Friends_4 
{
  states = ( "1" "2" "3" "4" "5" "6" "7" );
}
node GenSocTrust 
{
  states = ( "1" "2" "3" "4" "5" "6" "7" );
}
node Govresponse_7 
{
  states = ( "1" "2" "3" "4" "5" "6" "7" );
}
node Govresponse_8 
{
  states = ( "1" "2" "3" "4" "5" "6" "7" );
}
node KnowledgeCert_1 
{
  states = ( "1" "2" "3" "4" "5" "6" "7" );
}
node KnowledgeCert_2 
{
  states = ( "1" "2" "3" "4" "5" "6" "7" );
}
node Longitude_1 
{
  states = ( "1" "2" "3" "4" "5" "6" "7" );
}
node MediaExp_1 
{
  states = ( "1" "2" );
}
node MediaExp_3 
{
  states = ( "1" "2" );
}
node MediaExp_5 
{
  states = ( "1" "2" );
}
node Personal_4 
{
  states = ( "1" "2" "3" "4" "5" "6" "7" );
}
node Personal_7 
{
  states = ( "1" "2" "3" "4" "5" "6" "7" );
}
node risk_perception_r 
{
  states = ( "1" "2" "3" "4" "5" "6" "7" );
}
node SARS 
{
  states = ( "1" "2" );
}
node Sciunderstand 
{
  states = ( "1" "2" "3" "4" "5" "6" "7" );
}
node Soughtinfo 
{
  states = ( "1" "2" );
}
node Trustingroups_1 
{
  states = ( "1" "2" "3" "4" "5" );
}
node Trustingroups_2 
{
  states = ( "1" "2" "3" "4" "5" );
}
node Trustingroups_5 
{
  states = ( "1" "2" "3" "4" "5" );
}
node Trustingroups_6 
{
  states = ( "1" "2" "3" "4" "5" );
}
node Trustingroups_7 
{
  states = ( "1" "2" "3" "4" "5" );
}
node Vaccine_1 
{
  states = ( "1" "2" );
}
potential ( COVIDeffect_3 | risk_perception_r ) 
{
  data = ((0.790744468 0.100603622 0.002012072 0.100603622 0.002012072 0.002012072 0.002012072)(0.7131219087 0.1000872854 0.0430608088 0.0430608088 0.0573174280 0.0002909514 0.0430608088)(0.49858402 0.16451647 0.10798196 0.11826096 0.06172645 0.02831970 0.02061045)(0.33286007 0.14665720 0.11869267 0.18144235 0.12960566 0.06071742 0.03002464)(0.27913696 0.15167355 0.11779088 0.14521971 0.16337115 0.08350483 0.05930292)(0.22570752 0.13371503 0.09086139 0.13485780 0.16971209 0.13085812 0.11428805)(0.18732569 0.12152670 0.06078917 0.10634232 0.18479496 0.12911889 0.21010226)) ;
}
potential ( COVIDeffect_4 | risk_perception_r ) 
{
  data = ((0.987927568 0.002012072 0.002012072 0.002012072 0.002012072 0.002012072 0.002012072)(0.9554844340 0.0002909514 0.0145475706 0.0002909514 0.0145475706 0.0002909514 0.0145475706)(0.809523809 0.056586952 0.025749948 0.064296203 0.023180197 0.007761695 0.012901196)(0.731866205 0.065491850 0.042983811 0.097548753 0.036163194 0.017065464 0.008880723)(0.76277186 0.07584089 0.03510101 0.04437841 0.04074812 0.02340341 0.01775630)(0.75823549 0.08343342 0.02858076 0.03658010 0.02915214 0.02743799 0.03658010)(0.77445512 0.07091210 0.03042041 0.02282822 0.03295114 0.01776676 0.05066625)) ;
}
potential ( COVIDexp | risk_perception_r ) 
{
  data = ((0.001564945 0.001564945 0.001564945 0.001564945 0.001564945 0.001564945 0.001564945 0.987480440 0.001564945)(0.0287395338 0.0002262955 0.0144829147 0.0002262955 0.0002262955 0.0144829147 0.0002262955 0.9411631593 0.0002262955)(1.288954e-02 2.573829e-02 3.344754e-02 7.750041e-03 5.180290e-03 4.078969e-05 4.078969e-05 8.763257e-01 3.858705e-02)(0.0163803090 0.0266112356 0.0354780387 0.0075135059 0.0034211353 0.0006928882 0.0006928882 0.8375826863 0.0716273128)(9.283802e-03 3.872946e-02 3.267899e-02 9.283802e-03 8.131331e-04 1.619863e-03 6.402623e-06 8.002830e-01 1.073016e-01)(0.0040087431 0.0582900262 0.0485765334 0.0057228888 0.0005804515 0.0005804515 0.0005804515 0.7405200482 0.1411404058)(2.570901e-03 1.442918e-01 2.787820e-02 1.269382e-02 4.017032e-05 4.017032e-05 4.017032e-05 6.504379e-01 1.620069e-01)) ;
}
potential ( DemEdu | risk_perception_r ) 
{
  data = ((0.002347418 0.100938967 0.100938967 0.396713615 0.396713615 0.002347418)(0.04310930 0.08587916 0.34249830 0.42803802 0.07162254 0.02885268)(0.04888644 0.11826970 0.33669848 0.37524474 0.10542095 0.01547969)(0.04844263 0.12005911 0.32740589 0.36832960 0.10914612 0.02661665)(0.05043026 0.10770812 0.31261765 0.38845031 0.11819561 0.02259806)(0.04915245 0.10400512 0.29313253 0.40683754 0.12743177 0.01944059)(0.03549048 0.07851289 0.33664738 0.40244637 0.13418896 0.01271391)) ;
}
potential ( DemHealthcare | risk_perception_r ) 
{
  data = ((0.007042254 0.992957746)(0.08655804 0.91344196)(0.07984581 0.92015419)(0.06348046 0.93651954)(0.06698744 0.93301256)(0.07146355 0.92853645)(0.08875633 0.91124367)) ;
}
potential ( dine_out_less ) 
{
  data = ( 0.3060213 0.6939787 );
}
potential ( FinitePool_6 | risk_perception_r ) 
{
  data = ((0.396378270 0.002012072 0.100603622 0.100603622 0.199195171 0.002012072 0.199195171)(0.35670643 0.18562700 0.10008729 0.11434390 0.05731743 0.08583067 0.10008729)(0.15680722 0.14395846 0.15680722 0.22105098 0.14138871 0.08228446 0.09770296)(0.07367659 0.11050793 0.13096978 0.25783327 0.19849390 0.10641556 0.12210298)(0.05728609 0.09963944 0.12626155 0.19806055 0.23638025 0.15812740 0.12424472)(0.06629196 0.09943212 0.11200252 0.18513941 0.19656704 0.15371340 0.18685355)(0.07091210 0.14177254 0.07850429 0.16454912 0.17973350 0.14683400 0.21769445)) ;
}
potential ( Friends_2 | risk_perception_r ) 
{
  data = ((0.396378270 0.199195171 0.002012072 0.199195171 0.002012072 0.199195171 0.002012072)(0.21414024 0.15711376 0.08583067 0.18562700 0.05731743 0.07157405 0.22839686)(0.21848123 0.14395846 0.19278372 0.17479547 0.13110971 0.05658695 0.08228446)(0.08595370 0.11118999 0.15688813 0.27420275 0.18007823 0.10709762 0.08458958)(0.03550437 0.06979041 0.10972357 0.23920381 0.25291822 0.17345528 0.11940434)(0.02743799 0.05315018 0.06800611 0.13657194 0.22627890 0.23827792 0.25027695)(0.03042041 0.03042041 0.05319698 0.07344283 0.13671108 0.17467204 0.50113625)) ;
}
potential ( Friends_4 | risk_perception_r ) 
{
  data = ((0.790744468 0.100603622 0.002012072 0.002012072 0.002012072 0.002012072 0.100603622)(0.32819319 0.19988362 0.12860052 0.11434390 0.08583067 0.02880419 0.11434390)(0.27244598 0.22876023 0.20049297 0.15680722 0.07457520 0.04116845 0.02574995)(0.15893431 0.18076029 0.17666792 0.27079244 0.12960566 0.04639412 0.03684526)(0.10286636 0.15167355 0.16175768 0.26743937 0.19039662 0.08027791 0.04558850)(0.08914724 0.14000023 0.13314365 0.20056672 0.19542428 0.13771471 0.10400317)(0.07597356 0.10887305 0.11899597 0.16707985 0.15442620 0.11393451 0.26071687)) ;
}
potential ( GenSocTrust | risk_perception_r ) 
{
  data = ((0.100603622 0.297786720 0.100603622 0.199195171 0.100603622 0.199195171 0.002012072)(0.19988362 0.14285714 0.10008729 0.25691010 0.10008729 0.11434390 0.08583067)(0.14395846 0.11569121 0.17479547 0.22362073 0.18507447 0.08999371 0.06686595)(0.11732854 0.11118999 0.17871410 0.24214585 0.20736070 0.09823082 0.04503000)(0.12585818 0.13231202 0.15611057 0.20249757 0.23153987 0.11577405 0.03590774)(0.14685682 0.14857096 0.16456966 0.16742657 0.20742330 0.12400154 0.04115116)(0.23794030 0.12405743 0.15442620 0.14683400 0.17973350 0.10634232 0.05066625)) ;
}
potential ( Govresponse_7 | dine_out_less ) 
{
  data = ((0.04287493 0.05134318 0.09517879 0.21921366 0.25209038 0.20526597 0.13403309)(0.01692947 0.02571585 0.05580921 0.15289872 0.24186083 0.27283282 0.23395309)) ;
}
potential ( Govresponse_8 | dine_out_less ) 
{
  data = ((0.06678527 0.07475538 0.10115638 0.22020993 0.25956236 0.17637431 0.10115638)(0.05756649 0.07382129 0.08765984 0.17310740 0.24339845 0.22011454 0.14433200)) ;
}
potential ( KnowledgeCert_1 | risk_perception_r ) 
{
  data = ((0.100603622 0.199195171 0.199195171 0.100603622 0.100603622 0.002012072 0.297786720)(0.14285714 0.17137038 0.21414024 0.17137038 0.11434390 0.07157405 0.11434390)(0.07457520 0.17222572 0.34696874 0.20563247 0.13881896 0.04630795 0.01547095)(0.04912237 0.18894503 0.31444440 0.25783327 0.12551329 0.04844031 0.01570134)(0.04155485 0.18434614 0.32633069 0.20653122 0.17547210 0.05123561 0.01452938)(0.05429294 0.19142461 0.33255594 0.13542918 0.19085322 0.06800611 0.02743799)(0.08862721 0.15189547 0.28855490 0.14430327 0.15695693 0.13418035 0.03548187)) ;
}
potential ( KnowledgeCert_2 | risk_perception_r ) 
{
  data = ((0.100603622 0.100603622 0.100603622 0.100603622 0.199195171 0.002012072 0.396378270)(0.1286005 0.1000873 0.1286005 0.2996800 0.1000873 0.1000873 0.1428571)(0.04373820 0.09513321 0.28529473 0.26730648 0.15937697 0.09513321 0.05401720)(0.03207082 0.12551329 0.25374090 0.28443368 0.17598586 0.08049721 0.04775824)(0.02864716 0.11456395 0.26703601 0.22185910 0.20290094 0.11214376 0.05284908)(0.04400807 0.11885910 0.22685029 0.14514267 0.20285225 0.15199925 0.11028837)(0.05319698 0.08862721 0.19744861 0.14430327 0.16961058 0.16201839 0.18479496)) ;
}
potential ( Longitude_1 | risk_perception_r ) 
{
  data = ((0.889336018 0.002012072 0.002012072 0.100603622 0.002012072 0.002012072 0.002012072)(0.6703520513 0.1713703811 0.0715740471 0.0145475706 0.0715740471 0.0002909514 0.0002909514)(0.19021397 0.17222572 0.22362073 0.20563247 0.09513321 0.05658695 0.05658695)(0.04366587 0.07572278 0.13983658 0.23941760 0.23941760 0.14324689 0.11869267)(0.02017649 0.03348755 0.08068128 0.16014422 0.27308648 0.22790958 0.20451440)(0.009725154 0.017153119 0.035437340 0.096003825 0.195424280 0.233706869 0.412549413)(0.007643838 0.015236029 0.032951141 0.083565747 0.146834005 0.184794959 0.528974281)) ;
}
potential ( MediaExp_1 | risk_perception_r ) 
{
  data = ((0.5985915 0.4014085)(0.4287169 0.5712831)(0.4421806 0.5578194)(0.4577122 0.5422878)(0.4550248 0.5449752)(0.4851441 0.5148559)(0.513919 0.486081)) ;
}
potential ( MediaExp_3 | risk_perception_r ) 
{
  data = ((0.7957746 0.2042254)(0.8136456 0.1863544)(0.8636197 0.1363803)(0.875816 0.124184)(0.93583612 0.06416388)(0.96510489 0.03489511)(0.9719812 0.0280188)) ;
}
potential ( MediaExp_5 | risk_perception_r ) 
{
  data = ((0.7957746 0.2042254)(0.5285132 0.4714868)(0.5424009 0.4575991)(0.5675241 0.4324759)(0.6151608 0.3848392)(0.645131 0.354869)(0.7416847 0.2583153)) ;
}
potential ( Personal_4 | risk_perception_r ) 
{
  data = ((0.593561369 0.002012072 0.100603622 0.199195171 0.002012072 0.100603622 0.002012072)(0.37096305 0.24265348 0.07157405 0.11434390 0.05731743 0.01454757 0.12860052)(0.28529473 0.19792322 0.15423747 0.17993497 0.10798196 0.04630795 0.02831970)(0.17052936 0.17121143 0.14802132 0.27693100 0.14324689 0.05048649 0.03957350)(0.11174040 0.15328701 0.14118606 0.25412832 0.18999325 0.09641252 0.05325244)(0.1011463 0.1280012 0.1297154 0.1931388 0.1931388 0.1354292 0.1194305)(0.08862721 0.12658816 0.08862721 0.14177254 0.17214131 0.14177254 0.24047103)) ;
}
potential ( Personal_7 | risk_perception_r ) 
{
  data = ((0.593561368 0.100603622 0.002012072 0.002012072 0.100603622 0.100603622 0.100603622)(0.49927262 0.11434390 0.10008729 0.11434390 0.02880419 0.07157405 0.07157405)(0.39836375 0.19535347 0.14652821 0.13367946 0.05658695 0.03345920 0.03602895)(0.32944976 0.17325761 0.14188277 0.20667864 0.08117927 0.03411701 0.03343495)(0.32310377 0.17063172 0.14400961 0.18434614 0.09520242 0.04236158 0.04034475)(0.33769838 0.17085486 0.11885910 0.16914071 0.08286204 0.05543571 0.06514920)(0.38219192 0.15695693 0.09368867 0.14177254 0.06331990 0.02029749 0.14177254)) ;
}
potential ( risk_perception_r | dine_out_less ) 
{
  data = ((0.004020637 0.024444049 0.096175058 0.301405444 0.360683152 0.177868707 0.035402953)(0.000455009 0.004628540 0.043068957 0.189142543 0.385518161 0.306001412 0.071185377)) ;
}
potential ( SARS | risk_perception_r ) 
{
  data = ((0.007042254 0.992957746)(0.05804481 0.94195519)(0.04129956 0.95870044)(0.04165449 0.95834551)(0.03068457 0.96931543)(0.02632438 0.97367562)(0.03814172 0.96185828)) ;
}
potential ( Sciunderstand | risk_perception_r ) 
{
  data = ((0.199195171 0.002012072 0.100603622 0.199195171 0.100603622 0.100603622 0.297786720)(0.14285714 0.15711376 0.11434390 0.21414024 0.12860052 0.15711376 0.08583067)(0.02574995 0.07200545 0.10027271 0.23903923 0.26987623 0.17993497 0.11312146)(0.02183990 0.05321474 0.09004607 0.23327905 0.30080316 0.22236606 0.07845102)(0.01331928 0.04316831 0.10286636 0.19725382 0.32713742 0.24767448 0.06858032)(0.02115279 0.04857912 0.11371666 0.16799795 0.31541449 0.23256411 0.10057488)(0.02788968 0.07597356 0.09875013 0.14936474 0.28349344 0.19238715 0.17214131)) ;
}
potential ( Soughtinfo | risk_perception_r ) 
{
  data = ((0.3028169 0.6971831)(0.4714868 0.5285132)(0.5449706 0.4550294)(0.621407 0.378593)(0.7087415 0.2912585)(0.7948331 0.2051669)(0.8277296 0.1722704)) ;
}
potential ( Trustingroups_1 | risk_perception_r ) 
{
  data = ((0.002816901 0.002816901 0.200000000 0.298591549 0.495774648)(0.04317719 0.10020367 0.21425662 0.17148676 0.47087576)(0.02834068 0.04118943 0.14140969 0.28274596 0.50631424)(0.01502485 0.04094319 0.15484751 0.31649615 0.47268830)(0.01412931 0.02340671 0.10004610 0.33480466 0.52761322)(0.006872908 0.018871929 0.088580524 0.290849727 0.594824912)(0.01272596 0.02791034 0.07346349 0.26579899 0.62010122)) ;
}
potential ( Trustingroups_2 | risk_perception_r ) 
{
  data = ((0.002816901 0.002816901 0.594366198 0.397183099 0.002816901)(0.1144603 0.1572301 0.3140530 0.2285132 0.1857434)(0.06431718 0.17224670 0.41380323 0.26218796 0.08744493)(0.04230732 0.14052421 0.44745201 0.31308584 0.05663061)(0.03550766 0.12747493 0.43201567 0.34408206 0.06091967)(0.03772753 0.13429108 0.40912579 0.34455963 0.07429598)(0.08358641 0.14432393 0.37715112 0.31894432 0.07599422)) ;
}
potential ( Trustingroups_5 | risk_perception_r ) 
{
  data = ((0.397183099 0.101408451 0.397183099 0.101408451 0.002816901)(0.32830957 0.22851324 0.27128310 0.12871690 0.04317719)(0.27246696 0.29045521 0.34441997 0.07459618 0.01806167)(0.20873039 0.31990646 0.37174316 0.08868752 0.01093248)(0.22145903 0.33359456 0.35416619 0.07907111 0.01170912)(0.24513917 0.33541752 0.32798955 0.07372459 0.01772916)(0.29363702 0.26832972 0.34678236 0.08105568 0.01019523)) ;
}
potential ( Trustingroups_6 | risk_perception_r ) 
{
  data = ((0.298591549 0.200000000 0.397183099 0.002816901 0.101408451)(0.29979633 0.18574338 0.31405295 0.14297352 0.05743381)(0.12856094 0.26475771 0.45234949 0.14140969 0.01292217)(0.13916009 0.20804833 0.45904706 0.16098607 0.03275845)(0.11658407 0.23598018 0.43443586 0.18031578 0.03268411)(0.11657824 0.21142764 0.42798139 0.19657171 0.04744103)(0.17722343 0.13926247 0.41258134 0.22024584 0.05068691)) ;
}
potential ( Trustingroups_7 | risk_perception_r ) 
{
  data = ((0.200000000 0.101408451 0.594366197 0.002816901 0.101408451)(0.08594705 0.07169043 0.22851324 0.32830957 0.28553971)(0.01806167 0.08744493 0.23135095 0.41637298 0.24676946)(0.01570691 0.04844587 0.24624379 0.41607717 0.27352626)(0.00888556 0.03026392 0.15853406 0.47154547 0.33077100)(0.006872908 0.018300547 0.114292711 0.445122847 0.415410987)(0.012725958 0.007664497 0.103832249 0.415112075 0.460665221)) ;
}
potential ( Vaccine_1 | risk_perception_r ) 
{
  data = ((0.2042254 0.7957746)(0.4857434 0.5142566)(0.6349119 0.3650881)(0.7503167 0.2496833)(0.8192636 0.1807364)(0.860542 0.139458)(0.8783442 0.1216558)) ;
}
