net 
{ 
}
node CanadaQ_1_7 
{
  states = ( "1" "2.5" "4" "5.5" "7" );
}
node COVIDeffect_4 
{
  states = ( "1" "2" "3" "4" "5" "6" "7" );
}
node COVIDexp 
{
  states = ( "1" "2" "3" "4" "5" "6" "7" "8" "9" );
}
node FinitePool_6 
{
  states = ( "1" "2" "3" "4" "5" "6" "7" );
}
node Friends_1 
{
  states = ( "1" "2" "3" "4" "5" "6" "7" );
}
node Friends_4 
{
  states = ( "1" "2" "3" "4" "5" "6" "7" );
}
node Govresponse_7 
{
  states = ( "1" "2" "3" "4" "5" "6" "7" );
}
node Govresponse_8 
{
  states = ( "1" "2" "3" "4" "5" "6" "7" );
}
node KnowledgeCert_1 
{
  states = ( "1" "2" "3" "4" "5" "6" "7" );
}
node MediaExp_1 
{
  states = ( "1" "2" );
}
node MediaExp_4 
{
  states = ( "1" "2" );
}
node MediaExp_7 
{
  states = ( "1" "2" );
}
node risk_perception_r 
{
  states = ( "1" "2" "3" "4" "5" "6" "7" );
}
node SARS 
{
  states = ( "1" "2" );
}
node shop_groceries_less 
{
  states = ( "1" "2" );
}
node Trustingroups_12 
{
  states = ( "1" "2" "3" "4" "5" );
}
node Trustingroups_6 
{
  states = ( "1" "2" "3" "4" "5" );
}
node Trustingroups_7 
{
  states = ( "1" "2" "3" "4" "5" );
}
potential ( CanadaQ_1_7 | shop_groceries_less ) 
{
  data = ((0.02064012 0.05311475 0.14679157 0.39097580 0.38847775)(0.009604281 0.019462048 0.077763695 0.301957471 0.591212505)) ;
}
potential ( COVIDeffect_4 | risk_perception_r ) 
{
  data = ((0.987927568 0.002012072 0.002012072 0.002012072 0.002012072 0.002012072 0.002012072)(0.9420539302 0.0002868617 0.0143430866 0.0143430866 0.0143430866 0.0002868617 0.0143430866)(0.814119073 0.054486694 0.024794223 0.064384184 0.022319851 0.007473615 0.012422360)(0.72667762 0.06667385 0.04357372 0.09835403 0.03631368 0.01783357 0.01057353)(0.76209371 0.07590359 0.03443485 0.04460643 0.04069429 0.02504571 0.01722142)(0.75622555 0.08254803 0.02789538 0.03849130 0.02901074 0.02789538 0.03793362)(0.76652828 0.06950491 0.02981675 0.02237522 0.03477777 0.02485573 0.05214134)) ;
}
potential ( COVIDexp | risk_perception_r ) 
{
  data = ((0.001564945 0.001564945 0.001564945 0.001564945 0.001564945 0.001564945 0.001564945 0.987480440 0.001564945)(0.0283355645 0.0002231147 0.0142793396 0.0002231147 0.0002231147 0.0142793396 0.0002231147 0.9419901828 0.0002231147)(1.241114e-02 2.973175e-02 3.220612e-02 7.462393e-03 4.988021e-03 3.927576e-05 3.927576e-05 8.734928e-01 3.962924e-02)(0.015850567 0.027730635 0.037630691 0.008590525 0.003310495 0.000670480 0.000670480 0.836235255 0.069310872)(9.395356e-03 4.030130e-02 3.404187e-02 9.004142e-03 7.886386e-04 1.571068e-03 6.209753e-06 7.969100e-01 1.079814e-01)(0.0044702925 0.0580075774 0.0502000567 0.0061433326 0.0005665321 0.0011242122 0.0005665321 0.7361465193 0.1427749451)(2.519883e-03 1.439090e-01 2.732499e-02 1.244192e-02 3.937318e-05 3.937318e-05 3.937318e-05 6.499330e-01 1.637531e-01)) ;
}
potential ( FinitePool_6 | risk_perception_r ) 
{
  data = ((0.396378270 0.002012072 0.100603622 0.100603622 0.199195171 0.002012072 0.199195171)(0.35169248 0.18301779 0.09868044 0.12679289 0.05651176 0.08462421 0.09868044)(0.15346160 0.14356411 0.16335909 0.21532091 0.14108973 0.08170479 0.10149977)(0.07393389 0.10957410 0.12871420 0.26005496 0.19735460 0.10825409 0.12211417)(0.05673408 0.10094131 0.12480539 0.19718006 0.23551908 0.15805862 0.12676146)(0.06581763 0.09816307 0.11154739 0.18404580 0.19575708 0.15560412 0.18906492)(0.06950491 0.14143971 0.08438797 0.16128379 0.17864736 0.14640073 0.21833553)) ;
}
potential ( Friends_1 | risk_perception_r ) 
{
  data = ((0.593561369 0.199195171 0.002012072 0.100603622 0.100603622 0.002012072 0.002012072)(0.39386115 0.19707401 0.12679289 0.09868044 0.04245554 0.07056799 0.07056799)(0.27223148 0.24501338 0.16583346 0.14108973 0.09160228 0.04458920 0.03964046)(0.17029444 0.19141456 0.16897443 0.27325503 0.11485413 0.04423372 0.03697368)(0.10993924 0.17840177 0.17018627 0.26212166 0.16862141 0.06338472 0.04734493)(0.08645179 0.16898844 0.13998907 0.23814076 0.17568060 0.11098971 0.07975963)(0.1091931 0.1265566 0.1637643 0.1464007 0.1488812 0.1042321 0.2009720)) ;
}
potential ( Friends_4 | risk_perception_r ) 
{
  data = ((0.790744468 0.100603622 0.002012072 0.002012072 0.002012072 0.002012072 0.100603622)(0.32358003 0.21113024 0.12679289 0.11273666 0.08462421 0.02839931 0.11273666)(0.26975711 0.22769277 0.20542342 0.15346160 0.07675605 0.03964046 0.02726860)(0.16105439 0.18085450 0.17425447 0.27061502 0.13069422 0.04621373 0.03631368)(0.10328860 0.15023433 0.16079712 0.26877231 0.18935577 0.08098937 0.04656250)(0.08756715 0.13943139 0.13162387 0.19854548 0.19687244 0.14054675 0.10541291)(0.07694644 0.10671256 0.11911512 0.16624481 0.15384226 0.11911512 0.25802369)) ;
}
potential ( Govresponse_7 | shop_groceries_less ) 
{
  data = ((0.03218468 0.04342589 0.08308241 0.20673581 0.26356641 0.22390989 0.14709490)(0.01832740 0.02424206 0.05550526 0.14225361 0.22618545 0.27969904 0.25378719)) ;
}
potential ( Govresponse_8 | shop_groceries_less ) 
{
  data = ((0.06153675 0.06934315 0.09931973 0.20736032 0.26075611 0.18893721 0.11274674)(0.05888507 0.07775565 0.08479691 0.16985535 0.23801477 0.22224234 0.14844992)) ;
}
potential ( KnowledgeCert_1 | risk_perception_r ) 
{
  data = ((0.100603622 0.199195171 0.199195171 0.100603622 0.100603622 0.002012072 0.297786720)(0.14084911 0.16896156 0.22518646 0.16896156 0.11273666 0.07056799 0.11273666)(0.07923042 0.16830783 0.35636015 0.20047468 0.13614099 0.04458920 0.01489673)(0.05017376 0.19273457 0.30889523 0.25675494 0.12871420 0.04687374 0.01585356)(0.04147671 0.18309634 0.32667204 0.20891650 0.17331598 0.05125708 0.01526535)(0.05410635 0.19018028 0.33238869 0.13775835 0.19185332 0.06693299 0.02678002)(0.08686848 0.15632277 0.28530930 0.14888124 0.15384226 0.13399818 0.03477777)) ;
}
potential ( MediaExp_1 | risk_perception_r ) 
{
  data = ((0.5985915 0.4014085)(0.4226908 0.5773092)(0.4554613 0.5445387)(0.4613898 0.5386102)(0.456184 0.543816)(0.4891252 0.5108748)(0.5111623 0.4888377)) ;
}
potential ( MediaExp_4 | risk_perception_r ) 
{
  data = ((0.7957746 0.2042254)(0.8022088 0.1977912)(0.8216684 0.1783316)(0.8257119 0.1742881)(0.8998212 0.1001788)(0.9347116 0.0652884)(0.96509568 0.03490432)) ;
}
potential ( MediaExp_7 | risk_perception_r ) 
{
  data = ((0.5 0.5)(0.6335341 0.3664659)(0.6583598 0.3416402)(0.6983311 0.3016689)(0.7593752 0.2406248)(0.825964 0.174036)(0.8782778 0.1217222)) ;
}
potential ( risk_perception_r | shop_groceries_less ) 
{
  data = ((0.002520352 0.019382179 0.081208877 0.264815434 0.375354076 0.210795138 0.045923943)(0.0005834188 0.0025549721 0.0405777858 0.1878809826 0.3813748567 0.3149053453 0.0721226387)) ;
}
potential ( SARS | risk_perception_r ) 
{
  data = ((0.007042254 0.992957746)(0.05722892 0.94277108)(0.04224107 0.95775893)(0.04228738 0.95771262)(0.03054267 0.96945733)(0.02680848 0.97319152)(0.03738483 0.96261517)) ;
}
potential ( shop_groceries_less ) 
{
  data = ( 0.4742337 0.5257663 );
}
potential ( Trustingroups_12 | risk_perception_r ) 
{
  data = ((0.2985915 0.2000000 0.2000000 0.1014085 0.2000000)(0.07068273 0.07068273 0.29558233 0.28152610 0.28152610)(0.02234005 0.07430187 0.28214917 0.43556027 0.18564864)(0.01717896 0.07393928 0.28118046 0.40526117 0.22244013)(0.01331247 0.03991505 0.19718326 0.46790365 0.28168558)(0.01395793 0.02901530 0.17345443 0.41994901 0.36362333)(0.009992913 0.017434444 0.116654855 0.416796598 0.439121191)) ;
}
potential ( Trustingroups_6 | risk_perception_r ) 
{
  data = ((0.298591549 0.200000000 0.397183099 0.002816901 0.101408451)(0.29558233 0.18313253 0.32369478 0.14096386 0.05662651)(0.12873807 0.26482856 0.45535525 0.13616119 0.01491693)(0.13927965 0.20594003 0.45872148 0.16369979 0.03235904)(0.11972280 0.23473984 0.43308556 0.17996982 0.03248198)(0.11712874 0.21416507 0.42608349 0.19631931 0.04630338)(0.17618710 0.14145996 0.40935507 0.22083629 0.05216159)) ;
}
potential ( Trustingroups_7 | risk_perception_r ) 
{
  data = ((0.200000000 0.101408451 0.594366197 0.002816901 0.101408451)(0.08473896 0.07068273 0.22530120 0.33775100 0.28152610)(0.01739130 0.08667374 0.22523860 0.42318841 0.24750795)(0.01519894 0.05017914 0.24686027 0.41186121 0.27590043)(0.009400324 0.029352261 0.156888169 0.472989437 0.331369809)(0.006708094 0.018419375 0.113782664 0.446717655 0.414372212)(0.012473423 0.007512403 0.104252303 0.409355067 0.466406804)) ;
}
